tree
version=v4
num_class=1
num_tree_per_iteration=1
label_index=0
max_feature_idx=5
objective=binary sigmoid:1
feature_names=es_original n_original p_value_original vi_original ci.lower_original ci.upper_original
feature_infos=[0.089999999999999997:0.96917388000000004] [8:2612] [0:0.049190678288478] [7.68988905647588e-05:0.0384090909090909] [0.00088839046281330002:0.94307349846694299] [0.17136124949616999:0.987379314040572]
tree_sizes=655 937 728 820 826 842 753 966 642 814 655 646 649 733 659 845

Tree=0
num_leaves=5
num_cat=0
split_feature=2 2 2 2
split_gain=6.42673 1.43274 2.05513 0.456944
threshold=0.00097720790728010013 0.0041074079772395007 0.0071328090774024503 0.026870040299777354
decision_type=2 2 2 2
left_child=-1 -2 -3 -4
right_child=1 2 3 -5
leaf_value=0.25514239971979735 -0.2671434329637899 0.20697870170181798 0.02587173680537961 -0.18285491672778126
leaf_weight=7.7375997900962856 2.9951999187469465 2.2463999390602112 2.7455999255180359 2.9951999187469482
leaf_count=31 12 9 11 12
internal_value=0.0800427 -0.0994438 -0.00997063 -0.105144
internal_weight=0 10.9824 7.9872 5.7408
internal_count=75 44 32 23
is_linear=0
shrinkage=1


Tree=1
num_leaves=8
num_cat=0
split_feature=3 3 3 3 3 3 3
split_gain=7.76738 1.76276 1.01382 1.14921 0.648333 1.00226 0.411689
threshold=0.0056922103255100508 0.0094658548374008025 0.010840320850916652 0.017074301723177452 0.0040968714492687509 0.0019989845511298007 0.0015481206294769001
decision_type=2 2 2 2 2 2 2
left_child=4 -2 -3 -4 5 6 -1
right_child=1 2 3 -5 -6 -7 -8
leaf_value=0.043468136327246332 -0.36070438294467322 0.075426981902578322 -0.27060714627984084 0 0.34167246537694917 -0.045231382622820011 0.27998234753711809
leaf_weight=1.9678010940551787 3.4633182734251005 1.9734638780355451 2.7152882218360901 2.4862030148506165 1.9786013215780256 1.9678010940551756 1.9705337882041929
leaf_count=8 14 8 11 10 8 8 8
internal_value=0 -0.194034 -0.0845972 -0.15338 0.196465 0.111932 0.19368
internal_weight=0 10.6383 7.17496 5.20149 7.88474 5.90614 3.93833
internal_count=75 43 29 21 32 24 16
is_linear=0
shrinkage=0.309659


Tree=2
num_leaves=6
num_cat=0
split_feature=0 0 0 0 0
split_gain=3.85436 5.07374 2.13855 3.10689 0.544515
threshold=0.17638410245695152 0.27719396945323005 0.60056182250000012 0.35499390000000003 0.39108330517242607
decision_type=2 2 2 2 2
left_child=-1 -2 3 -3 -5
right_child=1 2 -4 4 -6
leaf_value=0.29958967410122461 -0.29222958877832189 0.24690255674323666 0.30114405677409678 0 -0.19635838014121143
leaf_weight=2.4192662239074734 5.7603525072336188 2.2043138742446882 1.9126342087984074 1.9343025833368299 3.9142094850540161
leaf_count=10 24 9 8 8 16
internal_value=0 -0.0764949 0.0553676 -0.0175843 -0.138315
internal_weight=0 15.7258 9.96546 8.05283 5.84851
internal_count=75 65 41 33 24
is_linear=0
shrinkage=0.309659


Tree=3
num_leaves=7
num_cat=0
split_feature=1 1 1 1 1 1
split_gain=2.89485 4.66376 1.3517 0.538326 0.281204 0.119267
threshold=163.00000000000003 65.500000000000014 36.500000000000007 586.50000000000011 93.500000000000014 323.50000000000006
decision_type=2 2 2 2 2 2
left_child=1 2 -1 5 -3 -2
right_child=3 4 -4 -5 -6 -7
leaf_value=-0.042806669644165546 0.090705690115430712 -0.12090245491189669 0.23643691114518633 0 -0.34761229901335267 0.27321274471856399
leaf_weight=2.6362153142690676 2.6412700712680808 2.5937954187393188 2.6150831580162048 1.8582128584384916 3.3426505327224731 1.9162351489067075
leaf_count=11 11 11 11 8 15 8
internal_value=0 -0.100628 0.101079 0.149212 -0.276784 0.20006
internal_weight=0 11.1877 5.2513 6.41572 5.93645 4.55751
internal_count=75 48 22 27 26 19
is_linear=0
shrinkage=0.309659


Tree=4
num_leaves=7
num_cat=0
split_feature=0 0 0 0 0 0
split_gain=2.20823 2.85929 1.43862 1.91505 0.378684 0.323328
threshold=0.19225143607135803 0.27719396945323005 0.60056182250000012 0.39108330517242607 0.22264981650000001 0.35499390000000003
decision_type=2 2 2 2 2 2
left_child=-1 4 3 5 -2 -3
right_child=1 2 -4 -5 -6 -7
leaf_value=0.22449101425731882 -0.33614987032776861 0.18342141449374727 0.2461686126916488 -0.16363641634021395 -0.097410112363648563 0
leaf_weight=2.6296979188919094 2.0411840230226508 2.1453254371881467 1.8180936276912687 3.9040840268135071 2.6802158057689667 1.8928920179605482
leaf_count=12 10 9 8 16 12 8
internal_value=0 -0.0545684 0.0396742 -0.0189059 -0.236833 0.116486
internal_weight=0 14.4818 9.7604 7.9423 4.7214 4.03822
internal_count=75 63 41 33 22 17
is_linear=0
shrinkage=0.309659


Tree=5
num_leaves=7
num_cat=0
split_feature=3 3 3 3 3 3
split_gain=2.60549 0.568118 0.908301 0.365878 0.583228 1.38295
threshold=0.0056922103255100508 0.0015481206294769001 0.0029313303023988505 0.017074301723177452 0.010639078917528352 0.0088201693259529011
decision_type=2 2 2 2 2 2
left_child=1 -1 -3 4 5 -2
right_child=3 2 -4 -5 -6 -7
leaf_value=-0.0016436872141827486 -0.20874624416447152 0.28899159117795875 0.023145377690800686 0 -0.24057874262721937 0.10007293214566808
leaf_weight=1.7734359651803995 1.8966604918241481 2.6175482273101807 2.7128862738609314 2.4330891966819763 2.714779332280159 2.247429758310318
leaf_count=8 10 12 12 10 12 11
internal_value=0 0.131967 0.177819 -0.107071 -0.140781 -0.0429837
internal_weight=0 7.10387 5.33043 9.29196 6.85887 4.14409
internal_count=75 32 24 43 33 21
is_linear=0
shrinkage=0.309659


Tree=6
num_leaves=6
num_cat=0
split_feature=4 4 4 4 4
split_gain=1.07038 1.86191 1.72903 0.863322 0.287649
threshold=0.22714687996208902 0.10287005141476001 0.15655509954167704 0.026816950430706452 0.061288817408136256
decision_type=2 2 2 2 2
left_child=1 3 -3 -1 -5
right_child=-2 2 -4 4 -6
leaf_value=-0.11464681342517929 0.13829944747137576 -0.37449633823934825 -0.0015529151407344089 0.16204151607635911 0.017070728819477743
leaf_weight=1.7416422516107539 3.310353860259057 1.8557179421186436 2.6518056392669678 2.8474928140640259 3.4411496222019196
leaf_count=10 15 8 12 14 16
internal_value=0 -0.0446443 -0.191227 0.0418225 0.0974794
internal_weight=0 12.5378 4.50752 8.03028 6.28864
internal_count=75 60 20 40 30
is_linear=0
shrinkage=0.309659


Tree=7
num_leaves=8
num_cat=0
split_feature=3 3 3 3 3 3 3
split_gain=1.25894 0.824717 0.3137 0.767977 0.499217 0.0847324 0.221459
threshold=0.0056922103255100508 0.0040968714492687509 0.0088201693259529011 0.0095688629688755016 0.012758899161983802 0.0015481206294769001 0.0019989845511298007
decision_type=2 2 2 2 2 2 2
left_child=1 5 -2 -4 -5 -1 -7
right_child=2 -3 3 4 -6 6 -8
leaf_value=-0.027787033775394574 -0.18100265235009649 0.24378386726601997 0.12725381092225527 -0.19192348289746752 -0.0037155796350830258 0.115357584226274 -0.014480607175198501
leaf_weight=1.7172752916812903 1.7468833923339824 1.6849424988031385 1.3508875817060468 1.9801426380872724 3.6863460838794708 1.398603603243828 1.8628888130187986
leaf_count=8 10 8 7 10 16 8 8
internal_value=0 0.0919296 -0.0788653 -0.0348537 -0.0888807 0.0108389 0.0419677
internal_weight=0 6.66371 8.76426 7.01738 5.66649 4.97877 3.26149
internal_count=75 32 43 33 26 24 16
is_linear=0
shrinkage=0.309659


Tree=8
num_leaves=5
num_cat=0
split_feature=0 0 0 0
split_gain=6.75127 2.2987 2.86811 1.476
threshold=0.43563070500000006 0.24654645362619801 0.29004904500000001 0.56571126700000007
decision_type=2 2 2 2
left_child=1 -1 -3 -2
right_child=3 2 -4 -5
leaf_value=-0.33971307836592901 0.42534561123925757 0.1882810895624959 -0.21056219484265032 0.044977211152271324
leaf_weight=3.5958314016461355 2.1430841088294992 2.4794987142086029 3.0944448858499527 2.1502422541379929
leaf_count=19 9 12 14 10
internal_value=0 -0.167736 -0.0259715 0.274519
internal_weight=0 9.16978 5.57394 4.29333
internal_count=64 45 26 19
is_linear=0
shrinkage=0.309659


Tree=9
num_leaves=7
num_cat=0
split_feature=3 3 3 3 3 3
split_gain=2.61916 2.49982 0.832272 0.111439 0.0206777 0.0114178
threshold=0.0050729047427760512 0.0075823776814001017 0.00164646971828485 0.013670048796846902 0.0029313303023988505 0.0094658548374008025
decision_type=2 2 2 2 2 2
left_child=2 -2 -1 5 -4 -3
right_child=1 3 4 -5 -6 -7
leaf_value=0 0.37407011544562424 0 -0.095730272468803237 0.037819027838409347 -0.31084875432835718 -0.05059898879359935
leaf_weight=1.9491762220859534 1.6134664714336375 1.756603389978409 1.6003181934356692 3.1322526782751083 1.7226356416940687 1.7938091307878492
leaf_count=9 8 8 9 13 8 9
internal_value=0 0.0950137 -0.169577 0 -0.250414 -0.0351841
internal_weight=0 8.29613 5.27213 6.68267 3.32295 3.55041
internal_count=64 38 26 30 17 17
is_linear=0
shrinkage=0.309659


Tree=10
num_leaves=5
num_cat=0
split_feature=2 2 2 2
split_gain=3.04566 3.15024 1.32481 1.22046
threshold=0.0058027816139208004 0.023743851402609303 0.00044365204635065004 3.1349136794541552e-09
decision_type=2 2 2 2
left_child=2 -2 3 -1
right_child=1 -3 -4 -5
leaf_value=0.18537525459309676 -0.33074063227450795 0.095442372287164887 0.26632764037404849 -0.086307417344767379
leaf_weight=1.8013084828853587 3.5640724003314981 2.150519073009491 2.5866405516862869 3.6445441395044327
leaf_count=9 17 10 12 16
internal_value=0 -0.171392 0.10977 0.00802224
internal_weight=0 5.71459 8.03249 5.44585
internal_count=64 27 37 25
is_linear=0
shrinkage=0.309659


Tree=11
num_leaves=5
num_cat=0
split_feature=5 5 5 5
split_gain=4.23701 2.13097 3.20628 0.252311
threshold=0.67376765544288464 0.53339355883610262 0.32953409010938706 0.45853064743165156
decision_type=2 2 2 2
left_child=1 2 -1 -4
right_child=-2 -3 3 -5
leaf_value=-0.25276076583880591 0.27305635545315288 -0.32623492389430903 0.03034270902338505 0.184170607289808
leaf_weight=2.826799809932707 3.2714329808950433 2.2759364992380133 3.0718323066830635 2.4433445632457733
leaf_count=13 15 10 15 11
internal_value=0 -0.0994704 -0.0135617 0.117252
internal_weight=0 10.6179 8.34198 5.51518
internal_count=64 49 39 26
is_linear=0
shrinkage=0.309659


Tree=12
num_leaves=5
num_cat=0
split_feature=0 0 0 0
split_gain=1.76174 0.409829 1.16908 0.356495
threshold=0.44836851274997908 0.24654645362619801 0.29004904500000001 0.58872628862398513
decision_type=2 2 2 2
left_child=1 -1 -3 -2
right_child=3 2 -4 -5
leaf_value=-0.13508772319669124 0.24037991482798676 0.12999907897291943 -0.11929194930460386 0.013504558630713839
leaf_weight=4.184982165694235 1.9700003117322933 2.5093889459967613 3.4282957389950752 1.5023890286684034
leaf_count=19 9 12 16 8
internal_value=0 -0.0678156 -0.00574668 0.169498
internal_weight=0 10.1227 5.93768 3.47239
internal_count=64 47 28 17
is_linear=0
shrinkage=0.309659


Tree=13
num_leaves=6
num_cat=0
split_feature=1 1 1 1 1
split_gain=0.539853 0.940335 0.853528 0.534854 0.000353719
threshold=90.500000000000014 76.500000000000014 127.00000000000001 229.50000000000003 34.500000000000007
decision_type=2 2 2 2 2
left_child=1 4 -2 -4 -1
right_child=2 -3 3 -5 -6
leaf_value=0 -0.22096461068667042 0.21768215824938467 0.10695572606986782 -0.061630494885736978 -0.018444068098434803
leaf_weight=1.5854398608207705 1.4368290305137632 1.842661380767822 2.3293067812919617 3.7687970027327538 2.3726074621081352
leaf_count=7 8 9 10 18 12
internal_value=0 0.0683931 -0.0511129 0.00149854 -0.0147155
internal_weight=0 5.80071 7.53493 6.0981 3.95805
internal_count=64 28 36 28 19
is_linear=0
shrinkage=0.309659


Tree=14
num_leaves=5
num_cat=0
split_feature=2 2 2 2
split_gain=1.57397 1.03833 0.499994 0.562177
threshold=0.0058027816139208004 0.023743851402609303 0.00044365204635065004 3.1349136794541552e-09
decision_type=2 2 2 2
left_child=2 -2 3 -1
right_child=1 -3 -4 -5
leaf_value=0.14359793390174219 -0.20317328283566899 0.041005917158281793 0.18764944959622892 -0.046452859037567594
leaf_weight=1.5951046571135519 3.6678177118301392 2.0386131033301353 2.5215720385313034 3.3922627866268158
leaf_count=9 17 10 12 16
internal_value=0 -0.114986 0.0901255 0.0176375
internal_weight=0 5.70643 7.50894 4.98737
internal_count=64 27 37 25
is_linear=0
shrinkage=0.309659


Tree=15
num_leaves=7
num_cat=0
split_feature=3 3 3 3 3 3
split_gain=0.49646 1.03073 0.460499 0.197184 0.104868 0.0297408
threshold=0.0050729047427760512 0.0075823776814001017 0.00164646971828485 0.0095688629688755016 0.017074301723177452 0.0029313303023988505
decision_type=2 2 2 2 2 2
left_child=2 -2 -1 -3 -5 -4
right_child=1 3 5 4 -6 -7
leaf_value=0.037955506262136403 0.23514979234515851 0.048147594031560416 -0.035648402915772891 -0.098461755662341957 0 -0.16154419813901816
leaf_weight=1.909725099802017 1.5156574845314024 2.4033725634217262 1.7638294249773028 1.601149380207062 2.0978915393352509 1.8123087063431738
leaf_count=9 8 12 9 8 10 8
internal_value=0 0.0523985 -0.0634636 -0.00645677 -0.0524564 -0.123844
internal_weight=0 7.61807 5.48586 6.10241 3.69904 3.57614
internal_count=64 38 26 30 18 17
is_linear=0
shrinkage=0.309659


end of trees

feature_importances:
vi_original=32
es_original=19
p_value_original=12
n_original=11
ci.lower_original=5
ci.upper_original=4

parameters:
[boosting: gbdt]
[objective: binary]
[metric: binary_logloss]
[tree_learner: serial]
[device_type: cpu]
[data_sample_strategy: bagging]
[data: ]
[valid: ]
[num_iterations: 10000]
[learning_rate: 0.309659]
[num_leaves: 218]
[num_threads: 0]
[seed: 0]
[deterministic: 0]
[force_col_wise: 0]
[force_row_wise: 0]
[histogram_pool_size: -1]
[max_depth: -1]
[min_data_in_leaf: 8]
[min_sum_hessian_in_leaf: 0.001]
[bagging_fraction: 0.228569]
[pos_bagging_fraction: 1]
[neg_bagging_fraction: 1]
[bagging_freq: 8]
[bagging_seed: 3]
[feature_fraction: 0.131927]
[feature_fraction_bynode: 1]
[feature_fraction_seed: 2]
[extra_trees: 0]
[extra_seed: 6]
[early_stopping_round: 0]
[early_stopping_min_delta: 0]
[first_metric_only: 0]
[max_delta_step: 0]
[lambda_l1: 0.120979]
[lambda_l2: 0.678599]
[linear_lambda: 0]
[min_gain_to_split: 0]
[drop_rate: 0.1]
[max_drop: 50]
[skip_drop: 0.5]
[xgboost_dart_mode: 0]
[uniform_drop: 0]
[drop_seed: 4]
[top_rate: 0.2]
[other_rate: 0.1]
[min_data_per_group: 100]
[max_cat_threshold: 32]
[cat_l2: 10]
[cat_smooth: 10]
[max_cat_to_onehot: 4]
[top_k: 20]
[monotone_constraints: ]
[monotone_constraints_method: basic]
[monotone_penalty: 0]
[feature_contri: ]
[forcedsplits_filename: ]
[refit_decay_rate: 0.9]
[cegb_tradeoff: 1]
[cegb_penalty_split: 0]
[cegb_penalty_feature_lazy: ]
[cegb_penalty_feature_coupled: ]
[path_smooth: 0]
[interaction_constraints: ]
[verbosity: 1]
[saved_feature_importance_type: 0]
[use_quantized_grad: 0]
[num_grad_quant_bins: 4]
[quant_train_renew_leaf: 0]
[stochastic_rounding: 1]
[linear_tree: 0]
[max_bin: 255]
[max_bin_by_feature: ]
[min_data_in_bin: 3]
[bin_construct_sample_cnt: 200000]
[data_random_seed: 1]
[is_enable_sparse: 1]
[enable_bundle: 1]
[use_missing: 1]
[zero_as_missing: 0]
[feature_pre_filter: 0]
[pre_partition: 0]
[two_round: 0]
[header: 0]
[label_column: ]
[weight_column: ]
[group_column: ]
[ignore_column: ]
[categorical_feature: ]
[forcedbins_filename: ]
[precise_float_parser: 0]
[parser_config_file: ]
[objective_seed: 5]
[num_class: 1]
[is_unbalance: 0]
[scale_pos_weight: 1]
[sigmoid: 1]
[boost_from_average: 1]
[reg_sqrt: 0]
[alpha: 0.9]
[fair_c: 1]
[poisson_max_delta_step: 0.7]
[tweedie_variance_power: 1.5]
[lambdarank_truncation_level: 30]
[lambdarank_norm: 1]
[label_gain: ]
[lambdarank_position_bias_regularization: 0]
[eval_at: ]
[multi_error_top_k: 1]
[auc_mu_weights: ]
[num_machines: 1]
[local_listen_port: 12400]
[time_out: 120]
[machine_list_filename: ]
[machines: ]
[gpu_platform_id: -1]
[gpu_device_id: -1]
[gpu_use_dp: 0]
[num_gpu: 1]

end of parameters

pandas_categorical:[]
